digraph Tree {
node [shape=box] ;
0 [label="FlyingCompanion <= 2.5\ngini = 0.729\nsamples = 324\nvalue = [113, 68, 51, 92]"] ;
1 [label="Airfare <= 58.5\ngini = 0.711\nsamples = 227\nvalue = [81, 53, 22, 71]"] ;
0 -> 1 [labeldistance=2.5, labelangle=45, headlabel="True"] ;
2 [label="Airfare <= 37.5\ngini = 0.722\nsamples = 174\nvalue = [48, 44, 21, 61]"] ;
1 -> 2 ;
3 [label="FrequentFlightDestination2 <= 0.5\ngini = 0.708\nsamples = 67\nvalue = [21, 25, 7, 14]"] ;
2 -> 3 ;
4 [label="TripDuration <= 59.5\ngini = 0.691\nsamples = 47\nvalue = [12, 21, 7, 7]"] ;
3 -> 4 ;
5 [label="MileageAirline4 <= 0.5\ngini = 0.722\nsamples = 41\nvalue = [12, 15, 7, 7]"] ;
4 -> 5 ;
6 [label="gini = 0.678\nsamples = 31\nvalue = [10, 13, 6, 2]"] ;
5 -> 6 ;
7 [label="gini = 0.66\nsamples = 10\nvalue = [2, 2, 1, 5]"] ;
5 -> 7 ;
8 [label="gini = 0.0\nsamples = 6\nvalue = [0, 6, 0, 0]"] ;
4 -> 8 ;
9 [label="Airfare <= 33.24\ngini = 0.635\nsamples = 20\nvalue = [9, 4, 0, 7]"] ;
3 -> 9 ;
10 [label="FlyingCompanion <= 1.5\ngini = 0.604\nsamples = 13\nvalue = [3, 3, 0, 7]"] ;
9 -> 10 ;
11 [label="gini = 0.512\nsamples = 11\nvalue = [1, 3, 0, 7]"] ;
10 -> 11 ;
12 [label="gini = 0.0\nsamples = 2\nvalue = [2, 0, 0, 0]"] ;
10 -> 12 ;
13 [label="TripPurpose <= 1.5\ngini = 0.245\nsamples = 7\nvalue = [6, 1, 0, 0]"] ;
9 -> 13 ;
14 [label="gini = 0.5\nsamples = 2\nvalue = [1, 1, 0, 0]"] ;
13 -> 14 ;
15 [label="gini = 0.0\nsamples = 5\nvalue = [5, 0, 0, 0]"] ;
13 -> 15 ;
16 [label="Occupation <= 10.5\ngini = 0.695\nsamples = 107\nvalue = [27, 19, 14, 47]"] ;
2 -> 16 ;
17 [label="AccessCost <= 1125.0\ngini = 0.653\nsamples = 80\nvalue = [20, 13, 7, 40]"] ;
16 -> 17 ;
18 [label="gini = 0.0\nsamples = 2\nvalue = [0, 0, 2, 0]"] ;
17 -> 18 ;
19 [label="AccessCost <= 1775.0\ngini = 0.639\nsamples = 78\nvalue = [20, 13, 5, 40]"] ;
17 -> 19 ;
20 [label="gini = 0.5\nsamples = 4\nvalue = [2, 2, 0, 0]"] ;
19 -> 20 ;
21 [label="gini = 0.622\nsamples = 74\nvalue = [18, 11, 5, 40]"] ;
19 -> 21 ;
22 [label="Airfare <= 54.5\ngini = 0.749\nsamples = 27\nvalue = [7, 6, 7, 7]"] ;
16 -> 22 ;
23 [label="FrequentFlightDestination2 <= 0.5\ngini = 0.731\nsamples = 22\nvalue = [7, 6, 3, 6]"] ;
22 -> 23 ;
24 [label="gini = 0.727\nsamples = 16\nvalue = [3, 4, 3, 6]"] ;
23 -> 24 ;
25 [label="gini = 0.444\nsamples = 6\nvalue = [4, 2, 0, 0]"] ;
23 -> 25 ;
26 [label="AccessTime <= 33.0\ngini = 0.32\nsamples = 5\nvalue = [0, 0, 4, 1]"] ;
22 -> 26 ;
27 [label="gini = 0.5\nsamples = 2\nvalue = [0, 0, 1, 1]"] ;
26 -> 27 ;
28 [label="gini = 0.0\nsamples = 3\nvalue = [0, 0, 3, 0]"] ;
26 -> 28 ;
29 [label="ProvinceResidence <= 5.5\ngini = 0.548\nsamples = 53\nvalue = [33, 9, 1, 10]"] ;
1 -> 29 ;
30 [label="MileageAirline4 <= 0.5\ngini = 0.436\nsamples = 40\nvalue = [29, 6, 0, 5]"] ;
29 -> 30 ;
31 [label="SeatClass <= 1.5\ngini = 0.49\nsamples = 34\nvalue = [23, 6, 0, 5]"] ;
30 -> 31 ;
32 [label="AccessTime <= 9.0\ngini = 0.414\nsamples = 31\nvalue = [23, 3, 0, 5]"] ;
31 -> 32 ;
33 [label="gini = 0.0\nsamples = 1\nvalue = [0, 0, 0, 1]"] ;
32 -> 33 ;
34 [label="gini = 0.384\nsamples = 30\nvalue = [23, 3, 0, 4]"] ;
32 -> 34 ;
35 [label="gini = 0.0\nsamples = 3\nvalue = [0, 3, 0, 0]"] ;
31 -> 35 ;
36 [label="gini = 0.0\nsamples = 6\nvalue = [6, 0, 0, 0]"] ;
30 -> 36 ;
37 [label="TripDuration <= 5.5\ngini = 0.698\nsamples = 13\nvalue = [4, 3, 1, 5]"] ;
29 -> 37 ;
38 [label="Airfare <= 88.0\ngini = 0.531\nsamples = 8\nvalue = [1, 2, 0, 5]"] ;
37 -> 38 ;
39 [label="MileageAirline2 <= 0.5\ngini = 0.449\nsamples = 7\nvalue = [1, 1, 0, 5]"] ;
38 -> 39 ;
40 [label="gini = 0.278\nsamples = 6\nvalue = [1, 0, 0, 5]"] ;
39 -> 40 ;
41 [label="gini = 0.0\nsamples = 1\nvalue = [0, 1, 0, 0]"] ;
39 -> 41 ;
42 [label="gini = 0.0\nsamples = 1\nvalue = [0, 1, 0, 0]"] ;
38 -> 42 ;
43 [label="FrequentFlightDestination1 <= 0.5\ngini = 0.56\nsamples = 5\nvalue = [3, 1, 1, 0]"] ;
37 -> 43 ;
44 [label="gini = 0.0\nsamples = 3\nvalue = [3, 0, 0, 0]"] ;
43 -> 44 ;
45 [label="DepartureTime <= 3.5\ngini = 0.5\nsamples = 2\nvalue = [0, 1, 1, 0]"] ;
43 -> 45 ;
46 [label="gini = 0.0\nsamples = 1\nvalue = [0, 1, 0, 0]"] ;
45 -> 46 ;
47 [label="gini = 0.0\nsamples = 1\nvalue = [0, 0, 1, 0]"] ;
45 -> 47 ;
48 [label="DepartureTime <= 1.5\ngini = 0.731\nsamples = 97\nvalue = [32, 15, 29, 21]"] ;
0 -> 48 [labeldistance=2.5, labelangle=-45, headlabel="False"] ;
49 [label="Occupation <= 7.0\ngini = 0.512\nsamples = 18\nvalue = [2, 1, 12, 3]"] ;
48 -> 49 ;
50 [label="FrequentFlightDestination1 <= 0.5\ngini = 0.355\nsamples = 13\nvalue = [0, 0, 10, 3]"] ;
49 -> 50 ;
51 [label="gini = 0.0\nsamples = 9\nvalue = [0, 0, 9, 0]"] ;
50 -> 51 ;
52 [label="Airfare <= 35.2\ngini = 0.375\nsamples = 4\nvalue = [0, 0, 1, 3]"] ;
50 -> 52 ;
53 [label="MileageAirline4 <= 0.5\ngini = 0.5\nsamples = 2\nvalue = [0, 0, 1, 1]"] ;
52 -> 53 ;
54 [label="gini = 0.0\nsamples = 1\nvalue = [0, 0, 0, 1]"] ;
53 -> 54 ;
55 [label="gini = 0.0\nsamples = 1\nvalue = [0, 0, 1, 0]"] ;
53 -> 55 ;
56 [label="gini = 0.0\nsamples = 2\nvalue = [0, 0, 0, 2]"] ;
52 -> 56 ;
57 [label="Airfare <= 50.49\ngini = 0.64\nsamples = 5\nvalue = [2, 1, 2, 0]"] ;
49 -> 57 ;
58 [label="gini = 0.0\nsamples = 2\nvalue = [2, 0, 0, 0]"] ;
57 -> 58 ;
59 [label="ModeTransport <= 1.5\ngini = 0.444\nsamples = 3\nvalue = [0, 1, 2, 0]"] ;
57 -> 59 ;
60 [label="gini = 0.0\nsamples = 1\nvalue = [0, 1, 0, 0]"] ;
59 -> 60 ;
61 [label="gini = 0.0\nsamples = 2\nvalue = [0, 0, 2, 0]"] ;
59 -> 61 ;
62 [label="FlyingCompanion <= 9.5\ngini = 0.726\nsamples = 79\nvalue = [30, 14, 17, 18]"] ;
48 -> 62 ;
63 [label="Nationality <= 1.5\ngini = 0.745\nsamples = 61\nvalue = [17, 12, 17, 15]"] ;
62 -> 63 ;
64 [label="Airport <= 1.5\ngini = 0.738\nsamples = 49\nvalue = [14, 12, 15, 8]"] ;
63 -> 64 ;
65 [label="Age <= 31.5\ngini = 0.69\nsamples = 34\nvalue = [6, 9, 15, 4]"] ;
64 -> 65 ;
66 [label="gini = 0.34\nsamples = 10\nvalue = [1, 1, 8, 0]"] ;
65 -> 66 ;
67 [label="gini = 0.733\nsamples = 24\nvalue = [5, 8, 7, 4]"] ;
65 -> 67 ;
68 [label="Gender <= 1.5\ngini = 0.604\nsamples = 15\nvalue = [8, 3, 0, 4]"] ;
64 -> 68 ;
69 [label="gini = 0.571\nsamples = 7\nvalue = [1, 2, 0, 4]"] ;
68 -> 69 ;
70 [label="gini = 0.219\nsamples = 8\nvalue = [7, 1, 0, 0]"] ;
68 -> 70 ;
71 [label="Destination <= 2.5\ngini = 0.569\nsamples = 12\nvalue = [3, 0, 2, 7]"] ;
63 -> 71 ;
72 [label="Gender <= 1.5\ngini = 0.375\nsamples = 8\nvalue = [2, 0, 0, 6]"] ;
71 -> 72 ;
73 [label="gini = 0.444\nsamples = 3\nvalue = [2, 0, 0, 1]"] ;
72 -> 73 ;
74 [label="gini = 0.0\nsamples = 5\nvalue = [0, 0, 0, 5]"] ;
72 -> 74 ;
75 [label="AccessTime <= 205.5\ngini = 0.625\nsamples = 4\nvalue = [1, 0, 2, 1]"] ;
71 -> 75 ;
76 [label="gini = 0.444\nsamples = 3\nvalue = [1, 0, 2, 0]"] ;
75 -> 76 ;
77 [label="gini = 0.0\nsamples = 1\nvalue = [0, 0, 0, 1]"] ;
75 -> 77 ;
78 [label="Income <= 6.0\ngini = 0.438\nsamples = 18\nvalue = [13, 2, 0, 3]"] ;
62 -> 78 ;
79 [label="TripDuration <= 3.5\ngini = 0.153\nsamples = 12\nvalue = [11, 1, 0, 0]"] ;
78 -> 79 ;
80 [label="AccessCost <= 6858.0\ngini = 0.5\nsamples = 2\nvalue = [1, 1, 0, 0]"] ;
79 -> 80 ;
81 [label="gini = 0.0\nsamples = 1\nvalue = [0, 1, 0, 0]"] ;
80 -> 81 ;
82 [label="gini = 0.0\nsamples = 1\nvalue = [1, 0, 0, 0]"] ;
80 -> 82 ;
83 [label="gini = 0.0\nsamples = 10\nvalue = [10, 0, 0, 0]"] ;
79 -> 83 ;
84 [label="MileageAirline5 <= 0.5\ngini = 0.611\nsamples = 6\nvalue = [2, 1, 0, 3]"] ;
78 -> 84 ;
85 [label="gini = 0.0\nsamples = 2\nvalue = [2, 0, 0, 0]"] ;
84 -> 85 ;
86 [label="ProvinceResidence <= 2.0\ngini = 0.375\nsamples = 4\nvalue = [0, 1, 0, 3]"] ;
84 -> 86 ;
87 [label="gini = 0.0\nsamples = 1\nvalue = [0, 1, 0, 0]"] ;
86 -> 87 ;
88 [label="gini = 0.0\nsamples = 3\nvalue = [0, 0, 0, 3]"] ;
86 -> 88 ;
}