digraph Tree {
node [shape=box] ;
0 [label="coolcount <= 2.5\ngini = 0.5\nsamples = 8000\nvalue = [3982, 4018]"] ;
1 [label="complimentcount <= 0.5\ngini = 0.376\nsamples = 4933\nvalue = [1238, 3695]"] ;
0 -> 1 [labeldistance=2.5, labelangle=45, headlabel="True"] ;
2 [label="friendcount <= 1.5\ngini = 0.334\nsamples = 4277\nvalue = [906, 3371]"] ;
1 -> 2 ;
3 [label="usefulcount <= 2.5\ngini = 0.267\nsamples = 3706\nvalue = [589, 3117]"] ;
2 -> 3 ;
4 [label="monmembership <= 0.5\ngini = 0.203\nsamples = 3092\nvalue = [355, 2737]"] ;
3 -> 4 ;
5 [label="gini = 0.11\nsamples = 1991\nvalue = [116, 1875]"] ;
4 -> 5 ;
6 [label="gini = 0.34\nsamples = 1101\nvalue = [239, 862]"] ;
4 -> 6 ;
7 [label="coolcount <= 0.5\ngini = 0.472\nsamples = 614\nvalue = [234, 380]"] ;
3 -> 7 ;
8 [label="gini = 0.409\nsamples = 297\nvalue = [85, 212]"] ;
7 -> 8 ;
9 [label="gini = 0.498\nsamples = 317\nvalue = [149, 168]"] ;
7 -> 9 ;
10 [label="monmembership <= 2.5\ngini = 0.494\nsamples = 571\nvalue = [317, 254]"] ;
2 -> 10 ;
11 [label="avgreviewlen <= 730.5\ngini = 0.469\nsamples = 272\nvalue = [102, 170]"] ;
10 -> 11 ;
12 [label="gini = 0.433\nsamples = 196\nvalue = [62, 134]"] ;
11 -> 12 ;
13 [label="gini = 0.499\nsamples = 76\nvalue = [40, 36]"] ;
11 -> 13 ;
14 [label="maxReviewDay <= 20.0\ngini = 0.404\nsamples = 299\nvalue = [215, 84]"] ;
10 -> 14 ;
15 [label="gini = 0.392\nsamples = 288\nvalue = [211, 77]"] ;
14 -> 15 ;
16 [label="gini = 0.463\nsamples = 11\nvalue = [4, 7]"] ;
14 -> 16 ;
17 [label="reusefulcount <= 0.5\ngini = 0.5\nsamples = 656\nvalue = [332, 324]"] ;
1 -> 17 ;
18 [label="usefulcount <= 5.5\ngini = 0.496\nsamples = 596\nvalue = [272, 324]"] ;
17 -> 18 ;
19 [label="reviewcount <= 5.5\ngini = 0.464\nsamples = 399\nvalue = [146, 253]"] ;
18 -> 19 ;
20 [label="gini = 0.31\nsamples = 120\nvalue = [23, 97]"] ;
19 -> 20 ;
21 [label="gini = 0.493\nsamples = 279\nvalue = [123, 156]"] ;
19 -> 21 ;
22 [label="monmembership <= 2.5\ngini = 0.461\nsamples = 197\nvalue = [126, 71]"] ;
18 -> 22 ;
23 [label="gini = 0.488\nsamples = 59\nvalue = [25, 34]"] ;
22 -> 23 ;
24 [label="gini = 0.392\nsamples = 138\nvalue = [101, 37]"] ;
22 -> 24 ;
25 [label="gini = 0.0\nsamples = 60\nvalue = [60, 0]"] ;
17 -> 25 ;
26 [label="funnycount <= 5.5\ngini = 0.188\nsamples = 3067\nvalue = [2744, 323]"] ;
0 -> 26 [labeldistance=2.5, labelangle=-45, headlabel="False"] ;
27 [label="usefulcount <= 5.5\ngini = 0.42\nsamples = 772\nvalue = [540, 232]"] ;
26 -> 27 ;
28 [label="recoolcount <= 0.5\ngini = 0.475\nsamples = 147\nvalue = [57, 90]"] ;
27 -> 28 ;
29 [label="reviewcount <= 9.5\ngini = 0.43\nsamples = 131\nvalue = [41, 90]"] ;
28 -> 29 ;
30 [label="gini = 0.238\nsamples = 58\nvalue = [8, 50]"] ;
29 -> 30 ;
31 [label="gini = 0.495\nsamples = 73\nvalue = [33, 40]"] ;
29 -> 31 ;
32 [label="gini = 0.0\nsamples = 16\nvalue = [16, 0]"] ;
28 -> 32 ;
33 [label="reusefulcount <= 0.5\ngini = 0.351\nsamples = 625\nvalue = [483, 142]"] ;
27 -> 33 ;
34 [label="avgReviewDay <= 3.5\ngini = 0.42\nsamples = 474\nvalue = [332, 142]"] ;
33 -> 34 ;
35 [label="gini = 0.392\nsamples = 418\nvalue = [306, 112]"] ;
34 -> 35 ;
36 [label="gini = 0.497\nsamples = 56\nvalue = [26, 30]"] ;
34 -> 36 ;
37 [label="gini = 0.0\nsamples = 151\nvalue = [151, 0]"] ;
33 -> 37 ;
38 [label="avgReviewDay <= 8.5\ngini = 0.076\nsamples = 2295\nvalue = [2204, 91]"] ;
26 -> 38 ;
39 [label="friendcount <= 0.5\ngini = 0.063\nsamples = 2273\nvalue = [2199, 74]"] ;
38 -> 39 ;
40 [label="reviewcount <= 14.5\ngini = 0.35\nsamples = 124\nvalue = [96, 28]"] ;
39 -> 40 ;
41 [label="gini = 0.386\nsamples = 23\nvalue = [6, 17]"] ;
40 -> 41 ;
42 [label="gini = 0.194\nsamples = 101\nvalue = [90, 11]"] ;
40 -> 42 ;
43 [label="usefulcount <= 12.5\ngini = 0.042\nsamples = 2149\nvalue = [2103, 46]"] ;
39 -> 43 ;
44 [label="gini = 0.35\nsamples = 62\nvalue = [48, 14]"] ;
43 -> 44 ;
45 [label="gini = 0.03\nsamples = 2087\nvalue = [2055, 32]"] ;
43 -> 45 ;
46 [label="funnycount <= 15.0\ngini = 0.351\nsamples = 22\nvalue = [5, 17]"] ;
38 -> 46 ;
47 [label="gini = 0.408\nsamples = 14\nvalue = [4, 10]"] ;
46 -> 47 ;
48 [label="gini = 0.219\nsamples = 8\nvalue = [1, 7]"] ;
46 -> 48 ;
}