digraph Tree {
node [shape=box] ;
0 [label="friendcount <= 1.5\ngini = 0.5\nsamples = 8000\nvalue = [3990, 4010]"] ;
1 [label="usefulcount <= 5.5\ngini = 0.343\nsamples = 4455\nvalue = [980, 3475]"] ;
0 -> 1 [labeldistance=2.5, labelangle=45, headlabel="True"] ;
2 [label="recoolcount <= 0.5\ngini = 0.239\nsamples = 3710\nvalue = [516, 3194]"] ;
1 -> 2 ;
3 [label="maxReviewDay <= 1.5\ngini = 0.228\nsamples = 3676\nvalue = [482, 3194]"] ;
2 -> 3 ;
4 [label="reusefulcount <= 0.5\ngini = 0.12\nsamples = 1467\nvalue = [94, 1373]"] ;
3 -> 4 ;
5 [label="reviewcount <= 1.5\ngini = 0.096\nsamples = 1446\nvalue = [73, 1373]"] ;
4 -> 5 ;
6 [label="tipcount <= 0.5\ngini = 0.054\nsamples = 933\nvalue = [26, 907]"] ;
5 -> 6 ;
7 [label="polarity <= 0.114\ngini = 0.05\nsamples = 927\nvalue = [24, 903]"] ;
6 -> 7 ;
8 [label="gini = 0.0\nsamples = 298\nvalue = [0, 298]"] ;
7 -> 8 ;
9 [label="avgreviewlen <= 762.0\ngini = 0.073\nsamples = 629\nvalue = [24, 605]"] ;
7 -> 9 ;
10 [label="friendcount <= 0.5\ngini = 0.102\nsamples = 425\nvalue = [23, 402]"] ;
9 -> 10 ;
11 [label="gini = 0.096\nsamples = 397\nvalue = [20, 377]"] ;
10 -> 11 ;
12 [label="gini = 0.191\nsamples = 28\nvalue = [3, 25]"] ;
10 -> 12 ;
13 [label="complimentcount <= 0.5\ngini = 0.01\nsamples = 204\nvalue = [1, 203]"] ;
9 -> 13 ;
14 [label="gini = 0.0\nsamples = 195\nvalue = [0, 195]"] ;
13 -> 14 ;
15 [label="gini = 0.198\nsamples = 9\nvalue = [1, 8]"] ;
13 -> 15 ;
16 [label="avgreviewlen <= 254.5\ngini = 0.444\nsamples = 6\nvalue = [2, 4]"] ;
6 -> 16 ;
17 [label="gini = 0.0\nsamples = 2\nvalue = [2, 0]"] ;
16 -> 17 ;
18 [label="gini = 0.0\nsamples = 4\nvalue = [0, 4]"] ;
16 -> 18 ;
19 [label="cluster <= 6.5\ngini = 0.166\nsamples = 513\nvalue = [47, 466]"] ;
5 -> 19 ;
20 [label="refunnycount <= 1.5\ngini = 0.151\nsamples = 473\nvalue = [39, 434]"] ;
19 -> 20 ;
21 [label="usefulcount <= 0.5\ngini = 0.145\nsamples = 471\nvalue = [37, 434]"] ;
20 -> 21 ;
22 [label="cluster <= 0.5\ngini = 0.185\nsamples = 232\nvalue = [24, 208]"] ;
21 -> 22 ;
23 [label="gini = 0.386\nsamples = 23\nvalue = [6, 17]"] ;
22 -> 23 ;
24 [label="gini = 0.157\nsamples = 209\nvalue = [18, 191]"] ;
22 -> 24 ;
25 [label="reviewrating <= 4.5\ngini = 0.103\nsamples = 239\nvalue = [13, 226]"] ;
21 -> 25 ;
26 [label="gini = 0.15\nsamples = 135\nvalue = [11, 124]"] ;
25 -> 26 ;
27 [label="gini = 0.038\nsamples = 104\nvalue = [2, 102]"] ;
25 -> 27 ;
28 [label="gini = 0.0\nsamples = 2\nvalue = [2, 0]"] ;
20 -> 28 ;
29 [label="reviewrating <= 4.5\ngini = 0.32\nsamples = 40\nvalue = [8, 32]"] ;
19 -> 29 ;
30 [label="reviewrating <= 3.0\ngini = 0.213\nsamples = 33\nvalue = [4, 29]"] ;
29 -> 30 ;
31 [label="monmembership <= 0.5\ngini = 0.278\nsamples = 24\nvalue = [4, 20]"] ;
30 -> 31 ;
32 [label="gini = 0.5\nsamples = 6\nvalue = [3, 3]"] ;
31 -> 32 ;
33 [label="gini = 0.105\nsamples = 18\nvalue = [1, 17]"] ;
31 -> 33 ;
34 [label="gini = 0.0\nsamples = 9\nvalue = [0, 9]"] ;
30 -> 34 ;
35 [label="friendcount <= 0.5\ngini = 0.49\nsamples = 7\nvalue = [4, 3]"] ;
29 -> 35 ;
36 [label="gini = 0.48\nsamples = 5\nvalue = [2, 3]"] ;
35 -> 36 ;
37 [label="gini = 0.0\nsamples = 2\nvalue = [2, 0]"] ;
35 -> 37 ;
38 [label="gini = 0.0\nsamples = 21\nvalue = [21, 0]"] ;
4 -> 38 ;
39 [label="usefulcount <= 2.5\ngini = 0.29\nsamples = 2209\nvalue = [388, 1821]"] ;
3 -> 39 ;
40 [label="reusefulcount <= 0.5\ngini = 0.223\nsamples = 1736\nvalue = [222, 1514]"] ;
39 -> 40 ;
41 [label="avgreviewlen <= 1016.5\ngini = 0.21\nsamples = 1719\nvalue = [205, 1514]"] ;
40 -> 41 ;
42 [label="refunnycount <= 0.5\ngini = 0.2\nsamples = 1646\nvalue = [185, 1461]"] ;
41 -> 42 ;
43 [label="reviewcount <= 1.5\ngini = 0.192\nsamples = 1637\nvalue = [176, 1461]"] ;
42 -> 43 ;
44 [label="subjective <= 0.46\ngini = 0.245\nsamples = 14\nvalue = [12, 2]"] ;
43 -> 44 ;
45 [label="gini = 0.0\nsamples = 2\nvalue = [0, 2]"] ;
44 -> 45 ;
46 [label="gini = 0.0\nsamples = 12\nvalue = [12, 0]"] ;
44 -> 46 ;
47 [label="firstcount <= 4.5\ngini = 0.182\nsamples = 1623\nvalue = [164, 1459]"] ;
43 -> 47 ;
48 [label="gini = 0.181\nsamples = 1621\nvalue = [163, 1458]"] ;
47 -> 48 ;
49 [label="gini = 0.5\nsamples = 2\nvalue = [1, 1]"] ;
47 -> 49 ;
50 [label="gini = 0.0\nsamples = 9\nvalue = [9, 0]"] ;
42 -> 50 ;
51 [label="monmembership <= 3.5\ngini = 0.398\nsamples = 73\nvalue = [20, 53]"] ;
41 -> 51 ;
52 [label="maxReviewDay <= 4.5\ngini = 0.295\nsamples = 50\nvalue = [9, 41]"] ;
51 -> 52 ;
53 [label="avgpostedrating <= 3.5\ngini = 0.258\nsamples = 46\nvalue = [7, 39]"] ;
52 -> 53 ;
54 [label="gini = 0.137\nsamples = 27\nvalue = [2, 25]"] ;
53 -> 54 ;
55 [label="gini = 0.388\nsamples = 19\nvalue = [5, 14]"] ;
53 -> 55 ;
56 [label="polarity <= 0.391\ngini = 0.5\nsamples = 4\nvalue = [2, 2]"] ;
52 -> 56 ;
57 [label="gini = 0.5\nsamples = 2\nvalue = [1, 1]"] ;
56 -> 57 ;
58 [label="gini = 0.5\nsamples = 2\nvalue = [1, 1]"] ;
56 -> 58 ;
59 [label="reviewrating <= 1.5\ngini = 0.499\nsamples = 23\nvalue = [11, 12]"] ;
51 -> 59 ;
60 [label="gini = 0.0\nsamples = 3\nvalue = [0, 3]"] ;
59 -> 60 ;
61 [label="subjective <= 0.579\ngini = 0.495\nsamples = 20\nvalue = [11, 9]"] ;
59 -> 61 ;
62 [label="gini = 0.26\nsamples = 13\nvalue = [11, 2]"] ;
61 -> 62 ;
63 [label="gini = 0.0\nsamples = 7\nvalue = [0, 7]"] ;
61 -> 63 ;
64 [label="gini = 0.0\nsamples = 17\nvalue = [17, 0]"] ;
40 -> 64 ;
65 [label="monmembership <= 5.5\ngini = 0.456\nsamples = 473\nvalue = [166, 307]"] ;
39 -> 65 ;
66 [label="tipcount <= 0.5\ngini = 0.373\nsamples = 314\nvalue = [78, 236]"] ;
65 -> 66 ;
67 [label="avgReviewDay <= 1.5\ngini = 0.352\nsamples = 289\nvalue = [66, 223]"] ;
66 -> 67 ;
68 [label="subjective <= 0.669\ngini = 0.469\nsamples = 88\nvalue = [33, 55]"] ;
67 -> 68 ;
69 [label="polarity <= 0.455\ngini = 0.386\nsamples = 65\nvalue = [17, 48]"] ;
68 -> 69 ;
70 [label="gini = 0.431\nsamples = 54\nvalue = [17, 37]"] ;
69 -> 70 ;
71 [label="gini = 0.0\nsamples = 11\nvalue = [0, 11]"] ;
69 -> 71 ;
72 [label="pricerange <= 0.5\ngini = 0.423\nsamples = 23\nvalue = [16, 7]"] ;
68 -> 72 ;
73 [label="gini = 0.0\nsamples = 2\nvalue = [0, 2]"] ;
72 -> 73 ;
74 [label="gini = 0.363\nsamples = 21\nvalue = [16, 5]"] ;
72 -> 74 ;
75 [label="reviewcount <= 52.0\ngini = 0.274\nsamples = 201\nvalue = [33, 168]"] ;
67 -> 75 ;
76 [label="subjective <= 0.759\ngini = 0.251\nsamples = 197\nvalue = [29, 168]"] ;
75 -> 76 ;
77 [label="gini = 0.223\nsamples = 180\nvalue = [23, 157]"] ;
76 -> 77 ;
78 [label="gini = 0.457\nsamples = 17\nvalue = [6, 11]"] ;
76 -> 78 ;
79 [label="gini = 0.0\nsamples = 4\nvalue = [4, 0]"] ;
75 -> 79 ;
80 [label="firstcount <= 0.5\ngini = 0.499\nsamples = 25\nvalue = [12, 13]"] ;
66 -> 80 ;
81 [label="subjective <= 0.547\ngini = 0.401\nsamples = 18\nvalue = [5, 13]"] ;
80 -> 81 ;
82 [label="busrating <= 4.25\ngini = 0.278\nsamples = 6\nvalue = [5, 1]"] ;
81 -> 82 ;
83 [label="gini = 0.0\nsamples = 4\nvalue = [4, 0]"] ;
82 -> 83 ;
84 [label="gini = 0.5\nsamples = 2\nvalue = [1, 1]"] ;
82 -> 84 ;
85 [label="gini = 0.0\nsamples = 12\nvalue = [0, 12]"] ;
81 -> 85 ;
86 [label="gini = 0.0\nsamples = 7\nvalue = [7, 0]"] ;
80 -> 86 ;
87 [label="reusefulcount <= 0.5\ngini = 0.494\nsamples = 159\nvalue = [88, 71]"] ;
65 -> 87 ;
88 [label="tipcount <= 4.0\ngini = 0.5\nsamples = 141\nvalue = [70, 71]"] ;
87 -> 88 ;
89 [label="avgpostedrating <= 1.5\ngini = 0.499\nsamples = 137\nvalue = [66, 71]"] ;
88 -> 89 ;
90 [label="gini = 0.0\nsamples = 4\nvalue = [0, 4]"] ;
89 -> 90 ;
91 [label="friendcount <= 0.5\ngini = 0.5\nsamples = 133\nvalue = [66, 67]"] ;
89 -> 91 ;
92 [label="gini = 0.495\nsamples = 107\nvalue = [48, 59]"] ;
91 -> 92 ;
93 [label="gini = 0.426\nsamples = 26\nvalue = [18, 8]"] ;
91 -> 93 ;
94 [label="gini = 0.0\nsamples = 4\nvalue = [4, 0]"] ;
88 -> 94 ;
95 [label="gini = 0.0\nsamples = 18\nvalue = [18, 0]"] ;
87 -> 95 ;
96 [label="gini = 0.0\nsamples = 34\nvalue = [34, 0]"] ;
2 -> 96 ;
97 [label="reusefulcount <= 0.5\ngini = 0.47\nsamples = 745\nvalue = [464, 281]"] ;
1 -> 97 ;
98 [label="reviewcount <= 13.5\ngini = 0.498\nsamples = 600\nvalue = [319, 281]"] ;
97 -> 98 ;
99 [label="maxReviewDay <= 1.5\ngini = 0.432\nsamples = 238\nvalue = [75, 163]"] ;
98 -> 99 ;
100 [label="usefulcount <= 12.5\ngini = 0.245\nsamples = 42\nvalue = [6, 36]"] ;
99 -> 100 ;
101 [label="monmembership <= 3.0\ngini = 0.153\nsamples = 36\nvalue = [3, 33]"] ;
100 -> 101 ;
102 [label="gini = 0.0\nsamples = 14\nvalue = [0, 14]"] ;
101 -> 102 ;
103 [label="subjective <= 0.601\ngini = 0.236\nsamples = 22\nvalue = [3, 19]"] ;
101 -> 103 ;
104 [label="subjective <= 0.521\ngini = 0.375\nsamples = 12\nvalue = [3, 9]"] ;
103 -> 104 ;
105 [label="gini = 0.0\nsamples = 6\nvalue = [0, 6]"] ;
104 -> 105 ;
106 [label="avgreviewlen <= 1358.0\ngini = 0.5\nsamples = 6\nvalue = [3, 3]"] ;
104 -> 106 ;
107 [label="gini = 0.0\nsamples = 2\nvalue = [2, 0]"] ;
106 -> 107 ;
108 [label="gini = 0.375\nsamples = 4\nvalue = [1, 3]"] ;
106 -> 108 ;
109 [label="gini = 0.0\nsamples = 10\nvalue = [0, 10]"] ;
103 -> 109 ;
110 [label="avgreviewlen <= 651.0\ngini = 0.5\nsamples = 6\nvalue = [3, 3]"] ;
100 -> 110 ;
111 [label="gini = 0.0\nsamples = 2\nvalue = [0, 2]"] ;
110 -> 111 ;
112 [label="subjective <= 0.536\ngini = 0.375\nsamples = 4\nvalue = [3, 1]"] ;
110 -> 112 ;
113 [label="gini = 0.5\nsamples = 2\nvalue = [1, 1]"] ;
112 -> 113 ;
114 [label="gini = 0.0\nsamples = 2\nvalue = [2, 0]"] ;
112 -> 114 ;
115 [label="cluster <= 2.5\ngini = 0.456\nsamples = 196\nvalue = [69, 127]"] ;
99 -> 115 ;
116 [label="avgreviewlen <= 963.5\ngini = 0.194\nsamples = 46\nvalue = [5, 41]"] ;
115 -> 116 ;
117 [label="coolcount <= 0.5\ngini = 0.302\nsamples = 27\nvalue = [5, 22]"] ;
116 -> 117 ;
118 [label="reviewcount <= 5.5\ngini = 0.469\nsamples = 8\nvalue = [3, 5]"] ;
117 -> 118 ;
119 [label="gini = 0.0\nsamples = 4\nvalue = [0, 4]"] ;
118 -> 119 ;
120 [label="maxReviewDay <= 6.5\ngini = 0.375\nsamples = 4\nvalue = [3, 1]"] ;
118 -> 120 ;
121 [label="gini = 0.5\nsamples = 2\nvalue = [1, 1]"] ;
120 -> 121 ;
122 [label="gini = 0.0\nsamples = 2\nvalue = [2, 0]"] ;
120 -> 122 ;
123 [label="avgreviewlen <= 753.5\ngini = 0.188\nsamples = 19\nvalue = [2, 17]"] ;
117 -> 123 ;
124 [label="subjective <= 0.541\ngini = 0.111\nsamples = 17\nvalue = [1, 16]"] ;
123 -> 124 ;
125 [label="gini = 0.245\nsamples = 7\nvalue = [1, 6]"] ;
124 -> 125 ;
126 [label="gini = 0.0\nsamples = 10\nvalue = [0, 10]"] ;
124 -> 126 ;
127 [label="gini = 0.5\nsamples = 2\nvalue = [1, 1]"] ;
123 -> 127 ;
128 [label="gini = 0.0\nsamples = 19\nvalue = [0, 19]"] ;
116 -> 128 ;
129 [label="usefulcount <= 6.5\ngini = 0.489\nsamples = 150\nvalue = [64, 86]"] ;
115 -> 129 ;
130 [label="avgReviewDay <= 5.0\ngini = 0.483\nsamples = 27\nvalue = [16, 11]"] ;
129 -> 130 ;
131 [label="reviewcount <= 11.5\ngini = 0.461\nsamples = 25\nvalue = [16, 9]"] ;
130 -> 131 ;
132 [label="coolcount <= 2.5\ngini = 0.375\nsamples = 20\nvalue = [15, 5]"] ;
131 -> 132 ;
133 [label="gini = 0.291\nsamples = 17\nvalue = [14, 3]"] ;
132 -> 133 ;
134 [label="gini = 0.444\nsamples = 3\nvalue = [1, 2]"] ;
132 -> 134 ;
135 [label="gini = 0.32\nsamples = 5\nvalue = [1, 4]"] ;
131 -> 135 ;
136 [label="gini = 0.0\nsamples = 2\nvalue = [0, 2]"] ;
130 -> 136 ;
137 [label="buscateg <= 0.5\ngini = 0.476\nsamples = 123\nvalue = [48, 75]"] ;
129 -> 137 ;
138 [label="monmembership <= 14.5\ngini = 0.408\nsamples = 21\nvalue = [15, 6]"] ;
137 -> 138 ;
139 [label="busrating <= 3.75\ngini = 0.496\nsamples = 11\nvalue = [5, 6]"] ;
138 -> 139 ;
140 [label="gini = 0.375\nsamples = 8\nvalue = [2, 6]"] ;
139 -> 140 ;
141 [label="gini = 0.0\nsamples = 3\nvalue = [3, 0]"] ;
139 -> 141 ;
142 [label="gini = 0.0\nsamples = 10\nvalue = [10, 0]"] ;
138 -> 142 ;
143 [label="monmembership <= 0.5\ngini = 0.438\nsamples = 102\nvalue = [33, 69]"] ;
137 -> 143 ;
144 [label="reviewcount <= 12.5\ngini = 0.224\nsamples = 39\nvalue = [5, 34]"] ;
143 -> 144 ;
145 [label="gini = 0.193\nsamples = 37\nvalue = [4, 33]"] ;
144 -> 145 ;
146 [label="gini = 0.5\nsamples = 2\nvalue = [1, 1]"] ;
144 -> 146 ;
147 [label="polarity <= -0.155\ngini = 0.494\nsamples = 63\nvalue = [28, 35]"] ;
143 -> 147 ;
148 [label="gini = 0.0\nsamples = 2\nvalue = [0, 2]"] ;
147 -> 148 ;
149 [label="gini = 0.497\nsamples = 61\nvalue = [28, 33]"] ;
147 -> 149 ;
150 [label="coolcount <= 4.5\ngini = 0.439\nsamples = 362\nvalue = [244, 118]"] ;
98 -> 150 ;
151 [label="subjective <= 0.395\ngini = 0.49\nsamples = 195\nvalue = [111, 84]"] ;
150 -> 151 ;
152 [label="complimentcount <= 0.5\ngini = 0.305\nsamples = 16\nvalue = [13, 3]"] ;
151 -> 152 ;
153 [label="avgReviewDay <= 1.5\ngini = 0.153\nsamples = 12\nvalue = [11, 1]"] ;
152 -> 153 ;
154 [label="gini = 0.0\nsamples = 9\nvalue = [9, 0]"] ;
153 -> 154 ;
155 [label="gini = 0.444\nsamples = 3\nvalue = [2, 1]"] ;
153 -> 155 ;
156 [label="funnycount <= 5.0\ngini = 0.5\nsamples = 4\nvalue = [2, 2]"] ;
152 -> 156 ;
157 [label="gini = 0.0\nsamples = 2\nvalue = [0, 2]"] ;
156 -> 157 ;
158 [label="gini = 0.0\nsamples = 2\nvalue = [2, 0]"] ;
156 -> 158 ;
159 [label="usefulcount <= 19.0\ngini = 0.495\nsamples = 179\nvalue = [98, 81]"] ;
151 -> 159 ;
160 [label="subjective <= 0.408\ngini = 0.499\nsamples = 150\nvalue = [72, 78]"] ;
159 -> 160 ;
161 [label="gini = 0.0\nsamples = 9\nvalue = [0, 9]"] ;
160 -> 161 ;
162 [label="maxReviewDay <= 10.5\ngini = 0.5\nsamples = 141\nvalue = [72, 69]"] ;
160 -> 162 ;
163 [label="firstcount <= 2.5\ngini = 0.482\nsamples = 104\nvalue = [62, 42]"] ;
162 -> 163 ;
164 [label="gini = 0.491\nsamples = 97\nvalue = [55, 42]"] ;
163 -> 164 ;
165 [label="gini = 0.0\nsamples = 7\nvalue = [7, 0]"] ;
163 -> 165 ;
166 [label="firstcount <= 0.5\ngini = 0.394\nsamples = 37\nvalue = [10, 27]"] ;
162 -> 166 ;
167 [label="gini = 0.271\nsamples = 31\nvalue = [5, 26]"] ;
166 -> 167 ;
168 [label="gini = 0.278\nsamples = 6\nvalue = [5, 1]"] ;
166 -> 168 ;
169 [label="usefulcount <= 35.5\ngini = 0.185\nsamples = 29\nvalue = [26, 3]"] ;
159 -> 169 ;
170 [label="buscateg <= 0.5\ngini = 0.077\nsamples = 25\nvalue = [24, 1]"] ;
169 -> 170 ;
171 [label="reviewcount <= 39.0\ngini = 0.375\nsamples = 4\nvalue = [3, 1]"] ;
170 -> 171 ;
172 [label="gini = 0.0\nsamples = 2\nvalue = [2, 0]"] ;
171 -> 172 ;
173 [label="gini = 0.5\nsamples = 2\nvalue = [1, 1]"] ;
171 -> 173 ;
174 [label="gini = 0.0\nsamples = 21\nvalue = [21, 0]"] ;
170 -> 174 ;
175 [label="buscateg <= 1.5\ngini = 0.5\nsamples = 4\nvalue = [2, 2]"] ;
169 -> 175 ;
176 [label="gini = 0.0\nsamples = 2\nvalue = [2, 0]"] ;
175 -> 176 ;
177 [label="gini = 0.0\nsamples = 2\nvalue = [0, 2]"] ;
175 -> 177 ;
178 [label="avgreviewlen <= 184.0\ngini = 0.324\nsamples = 167\nvalue = [133, 34]"] ;
150 -> 178 ;
179 [label="gini = 0.0\nsamples = 9\nvalue = [0, 9]"] ;
178 -> 179 ;
180 [label="complimentcount <= 41.5\ngini = 0.266\nsamples = 158\nvalue = [133, 25]"] ;
178 -> 180 ;
181 [label="polarity <= 0.95\ngini = 0.251\nsamples = 156\nvalue = [133, 23]"] ;
180 -> 181 ;
182 [label="tipcount <= 25.5\ngini = 0.219\nsamples = 152\nvalue = [133, 19]"] ;
181 -> 182 ;
183 [label="reviewcount <= 25.5\ngini = 0.202\nsamples = 149\nvalue = [132, 17]"] ;
182 -> 183 ;
184 [label="gini = 0.343\nsamples = 50\nvalue = [39, 11]"] ;
183 -> 184 ;
185 [label="gini = 0.114\nsamples = 99\nvalue = [93, 6]"] ;
183 -> 185 ;
186 [label="gini = 0.444\nsamples = 3\nvalue = [1, 2]"] ;
182 -> 186 ;
187 [label="gini = 0.0\nsamples = 4\nvalue = [0, 4]"] ;
181 -> 187 ;
188 [label="gini = 0.0\nsamples = 2\nvalue = [0, 2]"] ;
180 -> 188 ;
189 [label="gini = 0.0\nsamples = 145\nvalue = [145, 0]"] ;
97 -> 189 ;
190 [label="reusefulcount <= 0.5\ngini = 0.256\nsamples = 3545\nvalue = [3010, 535]"] ;
0 -> 190 [labeldistance=2.5, labelangle=-45, headlabel="False"] ;
191 [label="reviewcount <= 24.5\ngini = 0.358\nsamples = 2294\nvalue = [1759, 535]"] ;
190 -> 191 ;
192 [label="monmembership <= 2.5\ngini = 0.493\nsamples = 1000\nvalue = [558, 442]"] ;
191 -> 192 ;
193 [label="usefulcount <= 2.5\ngini = 0.443\nsamples = 399\nvalue = [132, 267]"] ;
192 -> 193 ;
194 [label="reviewcount <= 8.5\ngini = 0.289\nsamples = 223\nvalue = [39, 184]"] ;
193 -> 194 ;
195 [label="polarity <= 0.349\ngini = 0.341\nsamples = 174\nvalue = [38, 136]"] ;
194 -> 195 ;
196 [label="subjective <= 0.487\ngini = 0.184\nsamples = 78\nvalue = [8, 70]"] ;
195 -> 196 ;
197 [label="gini = 0.0\nsamples = 19\nvalue = [0, 19]"] ;
196 -> 197 ;
198 [label="avgreviewlen <= 505.0\ngini = 0.234\nsamples = 59\nvalue = [8, 51]"] ;
196 -> 198 ;
199 [label="avgReviewDay <= 3.5\ngini = 0.363\nsamples = 21\nvalue = [5, 16]"] ;
198 -> 199 ;
200 [label="gini = 0.266\nsamples = 19\nvalue = [3, 16]"] ;
199 -> 200 ;
201 [label="gini = 0.0\nsamples = 2\nvalue = [2, 0]"] ;
199 -> 201 ;
202 [label="friendcount <= 5.5\ngini = 0.145\nsamples = 38\nvalue = [3, 35]"] ;
198 -> 202 ;
203 [label="gini = 0.0\nsamples = 18\nvalue = [0, 18]"] ;
202 -> 203 ;
204 [label="gini = 0.255\nsamples = 20\nvalue = [3, 17]"] ;
202 -> 204 ;
205 [label="avgReviewDay <= 2.5\ngini = 0.43\nsamples = 96\nvalue = [30, 66]"] ;
195 -> 205 ;
206 [label="tipcount <= 0.5\ngini = 0.444\nsamples = 81\nvalue = [27, 54]"] ;
205 -> 206 ;
207 [label="busrating <= 3.75\ngini = 0.364\nsamples = 67\nvalue = [16, 51]"] ;
206 -> 207 ;
208 [label="gini = 0.408\nsamples = 7\nvalue = [5, 2]"] ;
207 -> 208 ;
209 [label="gini = 0.299\nsamples = 60\nvalue = [11, 49]"] ;
207 -> 209 ;
210 [label="fancount <= 0.5\ngini = 0.337\nsamples = 14\nvalue = [11, 3]"] ;
206 -> 210 ;
211 [label="gini = 0.165\nsamples = 11\nvalue = [10, 1]"] ;
210 -> 211 ;
212 [label="gini = 0.444\nsamples = 3\nvalue = [1, 2]"] ;
210 -> 212 ;
213 [label="reviewcount <= 6.5\ngini = 0.32\nsamples = 15\nvalue = [3, 12]"] ;
205 -> 213 ;
214 [label="avgreviewlen <= 349.0\ngini = 0.153\nsamples = 12\nvalue = [1, 11]"] ;
213 -> 214 ;
215 [label="gini = 0.0\nsamples = 7\nvalue = [0, 7]"] ;
214 -> 215 ;
216 [label="gini = 0.32\nsamples = 5\nvalue = [1, 4]"] ;
214 -> 216 ;
217 [label="gini = 0.444\nsamples = 3\nvalue = [2, 1]"] ;
213 -> 217 ;
218 [label="tipcount <= 3.5\ngini = 0.04\nsamples = 49\nvalue = [1, 48]"] ;
194 -> 218 ;
219 [label="gini = 0.0\nsamples = 43\nvalue = [0, 43]"] ;
218 -> 219 ;
220 [label="reviewrating <= 4.5\ngini = 0.278\nsamples = 6\nvalue = [1, 5]"] ;
218 -> 220 ;
221 [label="gini = 0.5\nsamples = 2\nvalue = [1, 1]"] ;
220 -> 221 ;
222 [label="gini = 0.0\nsamples = 4\nvalue = [0, 4]"] ;
220 -> 222 ;
223 [label="funnycount <= 4.5\ngini = 0.498\nsamples = 176\nvalue = [93, 83]"] ;
193 -> 223 ;
224 [label="busrating <= 3.0\ngini = 0.498\nsamples = 147\nvalue = [69, 78]"] ;
223 -> 224 ;
225 [label="gini = 0.0\nsamples = 2\nvalue = [2, 0]"] ;
224 -> 225 ;
226 [label="avgreviewlen <= 635.0\ngini = 0.497\nsamples = 145\nvalue = [67, 78]"] ;
224 -> 226 ;
227 [label="firstcount <= 0.5\ngini = 0.468\nsamples = 102\nvalue = [38, 64]"] ;
226 -> 227 ;
228 [label="pricerange <= 1.5\ngini = 0.424\nsamples = 72\nvalue = [22, 50]"] ;
227 -> 228 ;
229 [label="gini = 0.489\nsamples = 47\nvalue = [20, 27]"] ;
228 -> 229 ;
230 [label="gini = 0.147\nsamples = 25\nvalue = [2, 23]"] ;
228 -> 230 ;
231 [label="avgreviewlen <= 262.5\ngini = 0.498\nsamples = 30\nvalue = [16, 14]"] ;
227 -> 231 ;
232 [label="gini = 0.0\nsamples = 3\nvalue = [0, 3]"] ;
231 -> 232 ;
233 [label="gini = 0.483\nsamples = 27\nvalue = [16, 11]"] ;
231 -> 233 ;
234 [label="usefulcount <= 4.5\ngini = 0.439\nsamples = 43\nvalue = [29, 14]"] ;
226 -> 234 ;
235 [label="funnycount <= 2.5\ngini = 0.497\nsamples = 13\nvalue = [6, 7]"] ;
234 -> 235 ;
236 [label="gini = 0.48\nsamples = 10\nvalue = [6, 4]"] ;
235 -> 236 ;
237 [label="gini = 0.0\nsamples = 3\nvalue = [0, 3]"] ;
235 -> 237 ;
238 [label="friendcount <= 24.0\ngini = 0.358\nsamples = 30\nvalue = [23, 7]"] ;
234 -> 238 ;
239 [label="gini = 0.227\nsamples = 23\nvalue = [20, 3]"] ;
238 -> 239 ;
240 [label="gini = 0.49\nsamples = 7\nvalue = [3, 4]"] ;
238 -> 240 ;
241 [label="reviewrating <= 4.5\ngini = 0.285\nsamples = 29\nvalue = [24, 5]"] ;
223 -> 241 ;
242 [label="reviewcount <= 14.0\ngini = 0.401\nsamples = 18\nvalue = [13, 5]"] ;
241 -> 242 ;
243 [label="complimentcount <= 0.5\ngini = 0.5\nsamples = 10\nvalue = [5, 5]"] ;
242 -> 243 ;
244 [label="reviewrating <= 3.0\ngini = 0.375\nsamples = 4\nvalue = [3, 1]"] ;
243 -> 244 ;
245 [label="gini = 0.5\nsamples = 2\nvalue = [1, 1]"] ;
244 -> 245 ;
246 [label="gini = 0.0\nsamples = 2\nvalue = [2, 0]"] ;
244 -> 246 ;
247 [label="cluster <= 3.5\ngini = 0.444\nsamples = 6\nvalue = [2, 4]"] ;
243 -> 247 ;
248 [label="gini = 0.0\nsamples = 2\nvalue = [0, 2]"] ;
247 -> 248 ;
249 [label="gini = 0.5\nsamples = 4\nvalue = [2, 2]"] ;
247 -> 249 ;
250 [label="gini = 0.0\nsamples = 8\nvalue = [8, 0]"] ;
242 -> 250 ;
251 [label="gini = 0.0\nsamples = 11\nvalue = [11, 0]"] ;
241 -> 251 ;
252 [label="funnycount <= 0.5\ngini = 0.413\nsamples = 601\nvalue = [426, 175]"] ;
192 -> 252 ;
253 [label="cluster <= 4.5\ngini = 0.487\nsamples = 255\nvalue = [148, 107]"] ;
252 -> 253 ;
254 [label="avgreviewlen <= 95.5\ngini = 0.453\nsamples = 156\nvalue = [102, 54]"] ;
253 -> 254 ;
255 [label="gini = 0.0\nsamples = 5\nvalue = [0, 5]"] ;
254 -> 255 ;
256 [label="reviewcount <= 12.5\ngini = 0.438\nsamples = 151\nvalue = [102, 49]"] ;
254 -> 256 ;
257 [label="avgreviewlen <= 1045.0\ngini = 0.396\nsamples = 114\nvalue = [83, 31]"] ;
256 -> 257 ;
258 [label="subjective <= 0.763\ngini = 0.355\nsamples = 104\nvalue = [80, 24]"] ;
257 -> 258 ;
259 [label="gini = 0.315\nsamples = 97\nvalue = [78, 19]"] ;
258 -> 259 ;
260 [label="gini = 0.408\nsamples = 7\nvalue = [2, 5]"] ;
258 -> 260 ;
261 [label="reviewcount <= 5.5\ngini = 0.42\nsamples = 10\nvalue = [3, 7]"] ;
257 -> 261 ;
262 [label="gini = 0.0\nsamples = 7\nvalue = [0, 7]"] ;
261 -> 262 ;
263 [label="gini = 0.0\nsamples = 3\nvalue = [3, 0]"] ;
261 -> 263 ;
264 [label="cluster <= 2.5\ngini = 0.5\nsamples = 37\nvalue = [19, 18]"] ;
256 -> 264 ;
265 [label="subjective <= 0.549\ngini = 0.391\nsamples = 15\nvalue = [4, 11]"] ;
264 -> 265 ;
266 [label="gini = 0.165\nsamples = 11\nvalue = [1, 10]"] ;
265 -> 266 ;
267 [label="gini = 0.375\nsamples = 4\nvalue = [3, 1]"] ;
265 -> 267 ;
268 [label="subjective <= 0.267\ngini = 0.434\nsamples = 22\nvalue = [15, 7]"] ;
264 -> 268 ;
269 [label="gini = 0.0\nsamples = 4\nvalue = [0, 4]"] ;
268 -> 269 ;
270 [label="gini = 0.278\nsamples = 18\nvalue = [15, 3]"] ;
268 -> 270 ;
271 [label="tipcount <= 6.5\ngini = 0.498\nsamples = 99\nvalue = [46, 53]"] ;
253 -> 271 ;
272 [label="monmembership <= 3.5\ngini = 0.486\nsamples = 91\nvalue = [38, 53]"] ;
271 -> 272 ;
273 [label="buscateg <= 0.5\ngini = 0.208\nsamples = 17\nvalue = [2, 15]"] ;
272 -> 273 ;
274 [label="pricerange <= 1.5\ngini = 0.375\nsamples = 4\nvalue = [1, 3]"] ;
273 -> 274 ;
275 [label="gini = 0.0\nsamples = 2\nvalue = [0, 2]"] ;
274 -> 275 ;
276 [label="gini = 0.5\nsamples = 2\nvalue = [1, 1]"] ;
274 -> 276 ;
277 [label="avgreviewlen <= 260.5\ngini = 0.142\nsamples = 13\nvalue = [1, 12]"] ;
273 -> 277 ;
278 [label="gini = 0.375\nsamples = 4\nvalue = [1, 3]"] ;
277 -> 278 ;
279 [label="gini = 0.0\nsamples = 9\nvalue = [0, 9]"] ;
277 -> 279 ;
280 [label="reviewcount <= 9.5\ngini = 0.5\nsamples = 74\nvalue = [36, 38]"] ;
272 -> 280 ;
281 [label="busrating <= 3.75\ngini = 0.483\nsamples = 44\nvalue = [26, 18]"] ;
280 -> 281 ;
282 [label="gini = 0.26\nsamples = 13\nvalue = [11, 2]"] ;
281 -> 282 ;
283 [label="gini = 0.499\nsamples = 31\nvalue = [15, 16]"] ;
281 -> 283 ;
284 [label="avgreviewlen <= 454.5\ngini = 0.444\nsamples = 30\nvalue = [10, 20]"] ;
280 -> 284 ;
285 [label="gini = 0.266\nsamples = 19\nvalue = [3, 16]"] ;
284 -> 285 ;
286 [label="gini = 0.463\nsamples = 11\nvalue = [7, 4]"] ;
284 -> 286 ;
287 [label="gini = 0.0\nsamples = 8\nvalue = [8, 0]"] ;
271 -> 287 ;
288 [label="complimentcount <= 0.5\ngini = 0.316\nsamples = 346\nvalue = [278, 68]"] ;
252 -> 288 ;
289 [label="usefulcount <= 2.5\ngini = 0.421\nsamples = 136\nvalue = [95, 41]"] ;
288 -> 289 ;
290 [label="avgreviewlen <= 420.0\ngini = 0.499\nsamples = 40\nvalue = [19, 21]"] ;
289 -> 290 ;
291 [label="pricerange <= 1.5\ngini = 0.463\nsamples = 22\nvalue = [14, 8]"] ;
290 -> 291 ;
292 [label="maxReviewDay <= 3.5\ngini = 0.498\nsamples = 15\nvalue = [7, 8]"] ;
291 -> 292 ;
293 [label="gini = 0.473\nsamples = 13\nvalue = [5, 8]"] ;
292 -> 293 ;
294 [label="gini = 0.0\nsamples = 2\nvalue = [2, 0]"] ;
292 -> 294 ;
295 [label="gini = 0.0\nsamples = 7\nvalue = [7, 0]"] ;
291 -> 295 ;
296 [label="cluster <= 4.5\ngini = 0.401\nsamples = 18\nvalue = [5, 13]"] ;
290 -> 296 ;
297 [label="friendcount <= 6.0\ngini = 0.32\nsamples = 5\nvalue = [4, 1]"] ;
296 -> 297 ;
298 [label="gini = 0.5\nsamples = 2\nvalue = [1, 1]"] ;
297 -> 298 ;
299 [label="gini = 0.0\nsamples = 3\nvalue = [3, 0]"] ;
297 -> 299 ;
300 [label="usefulcount <= 0.5\ngini = 0.142\nsamples = 13\nvalue = [1, 12]"] ;
296 -> 300 ;
301 [label="gini = 0.0\nsamples = 5\nvalue = [0, 5]"] ;
300 -> 301 ;
302 [label="gini = 0.219\nsamples = 8\nvalue = [1, 7]"] ;
300 -> 302 ;
303 [label="subjective <= 0.664\ngini = 0.33\nsamples = 96\nvalue = [76, 20]"] ;
289 -> 303 ;
304 [label="avgreviewlen <= 1395.0\ngini = 0.381\nsamples = 78\nvalue = [58, 20]"] ;
303 -> 304 ;
305 [label="avgreviewlen <= 364.5\ngini = 0.342\nsamples = 73\nvalue = [57, 16]"] ;
304 -> 305 ;
306 [label="gini = 0.498\nsamples = 17\nvalue = [9, 8]"] ;
305 -> 306 ;
307 [label="gini = 0.245\nsamples = 56\nvalue = [48, 8]"] ;
305 -> 307 ;
308 [label="gini = 0.32\nsamples = 5\nvalue = [1, 4]"] ;
304 -> 308 ;
309 [label="gini = 0.0\nsamples = 18\nvalue = [18, 0]"] ;
303 -> 309 ;
310 [label="avgreviewlen <= 338.5\ngini = 0.224\nsamples = 210\nvalue = [183, 27]"] ;
288 -> 310 ;
311 [label="reviewcount <= 12.5\ngini = 0.498\nsamples = 34\nvalue = [18, 16]"] ;
310 -> 311 ;
312 [label="gini = 0.0\nsamples = 5\nvalue = [5, 0]"] ;
311 -> 312 ;
313 [label="friendcount <= 14.0\ngini = 0.495\nsamples = 29\nvalue = [13, 16]"] ;
311 -> 313 ;
314 [label="avgreviewlen <= 276.0\ngini = 0.305\nsamples = 16\nvalue = [3, 13]"] ;
313 -> 314 ;
315 [label="gini = 0.469\nsamples = 8\nvalue = [3, 5]"] ;
314 -> 315 ;
316 [label="gini = 0.0\nsamples = 8\nvalue = [0, 8]"] ;
314 -> 316 ;
317 [label="fancount <= 5.5\ngini = 0.355\nsamples = 13\nvalue = [10, 3]"] ;
313 -> 317 ;
318 [label="gini = 0.165\nsamples = 11\nvalue = [10, 1]"] ;
317 -> 318 ;
319 [label="gini = 0.0\nsamples = 2\nvalue = [0, 2]"] ;
317 -> 319 ;
320 [label="subjective <= 0.581\ngini = 0.117\nsamples = 176\nvalue = [165, 11]"] ;
310 -> 320 ;
321 [label="reviewrating <= 2.5\ngini = 0.192\nsamples = 93\nvalue = [83, 10]"] ;
320 -> 321 ;
322 [label="polarity <= 0.087\ngini = 0.459\nsamples = 14\nvalue = [9, 5]"] ;
321 -> 322 ;
323 [label="gini = 0.0\nsamples = 8\nvalue = [8, 0]"] ;
322 -> 323 ;
324 [label="gini = 0.278\nsamples = 6\nvalue = [1, 5]"] ;
322 -> 324 ;
325 [label="subjective <= 0.573\ngini = 0.119\nsamples = 79\nvalue = [74, 5]"] ;
321 -> 325 ;
326 [label="gini = 0.053\nsamples = 73\nvalue = [71, 2]"] ;
325 -> 326 ;
327 [label="gini = 0.5\nsamples = 6\nvalue = [3, 3]"] ;
325 -> 327 ;
328 [label="complimentcount <= 1.5\ngini = 0.024\nsamples = 83\nvalue = [82, 1]"] ;
320 -> 328 ;
329 [label="avgpostedrating <= 3.5\ngini = 0.043\nsamples = 46\nvalue = [45, 1]"] ;
328 -> 329 ;
330 [label="gini = 0.0\nsamples = 32\nvalue = [32, 0]"] ;
329 -> 330 ;
331 [label="gini = 0.133\nsamples = 14\nvalue = [13, 1]"] ;
329 -> 331 ;
332 [label="gini = 0.0\nsamples = 37\nvalue = [37, 0]"] ;
328 -> 332 ;
333 [label="monmembership <= 4.5\ngini = 0.133\nsamples = 1294\nvalue = [1201, 93]"] ;
191 -> 333 ;
334 [label="coolcount <= 3.5\ngini = 0.368\nsamples = 214\nvalue = [162, 52]"] ;
333 -> 334 ;
335 [label="usefulcount <= 5.5\ngini = 0.493\nsamples = 41\nvalue = [18, 23]"] ;
334 -> 335 ;
336 [label="tipcount <= 0.5\ngini = 0.298\nsamples = 22\nvalue = [4, 18]"] ;
335 -> 336 ;
337 [label="pricerange <= 1.5\ngini = 0.105\nsamples = 18\nvalue = [1, 17]"] ;
336 -> 337 ;
338 [label="gini = 0.0\nsamples = 10\nvalue = [0, 10]"] ;
337 -> 338 ;
339 [label="reviewcount <= 32.5\ngini = 0.219\nsamples = 8\nvalue = [1, 7]"] ;
337 -> 339 ;
340 [label="gini = 0.5\nsamples = 2\nvalue = [1, 1]"] ;
339 -> 340 ;
341 [label="gini = 0.0\nsamples = 6\nvalue = [0, 6]"] ;
339 -> 341 ;
342 [label="tipcount <= 5.5\ngini = 0.375\nsamples = 4\nvalue = [3, 1]"] ;
336 -> 342 ;
343 [label="gini = 0.0\nsamples = 2\nvalue = [2, 0]"] ;
342 -> 343 ;
344 [label="gini = 0.5\nsamples = 2\nvalue = [1, 1]"] ;
342 -> 344 ;
345 [label="avgReviewDay <= 3.5\ngini = 0.388\nsamples = 19\nvalue = [14, 5]"] ;
335 -> 345 ;
346 [label="coolcount <= 1.5\ngini = 0.153\nsamples = 12\nvalue = [11, 1]"] ;
345 -> 346 ;
347 [label="gini = 0.444\nsamples = 3\nvalue = [2, 1]"] ;
346 -> 347 ;
348 [label="gini = 0.0\nsamples = 9\nvalue = [9, 0]"] ;
346 -> 348 ;
349 [label="funnycount <= 5.0\ngini = 0.49\nsamples = 7\nvalue = [3, 4]"] ;
345 -> 349 ;
350 [label="gini = 0.0\nsamples = 3\nvalue = [3, 0]"] ;
349 -> 350 ;
351 [label="gini = 0.0\nsamples = 4\nvalue = [0, 4]"] ;
349 -> 351 ;
352 [label="friendcount <= 5.5\ngini = 0.279\nsamples = 173\nvalue = [144, 29]"] ;
334 -> 352 ;
353 [label="firstcount <= 2.0\ngini = 0.471\nsamples = 29\nvalue = [18, 11]"] ;
352 -> 353 ;
354 [label="funnycount <= 14.5\ngini = 0.488\nsamples = 19\nvalue = [8, 11]"] ;
353 -> 354 ;
355 [label="avgreviewlen <= 362.5\ngini = 0.198\nsamples = 9\nvalue = [8, 1]"] ;
354 -> 355 ;
356 [label="gini = 0.444\nsamples = 3\nvalue = [2, 1]"] ;
355 -> 356 ;
357 [label="gini = 0.0\nsamples = 6\nvalue = [6, 0]"] ;
355 -> 357 ;
358 [label="gini = 0.0\nsamples = 10\nvalue = [0, 10]"] ;
354 -> 358 ;
359 [label="gini = 0.0\nsamples = 10\nvalue = [10, 0]"] ;
353 -> 359 ;
360 [label="subjective <= 0.729\ngini = 0.219\nsamples = 144\nvalue = [126, 18]"] ;
352 -> 360 ;
361 [label="coolcount <= 15.0\ngini = 0.161\nsamples = 125\nvalue = [114, 11]"] ;
360 -> 361 ;
362 [label="buscateg <= 0.5\ngini = 0.038\nsamples = 52\nvalue = [51, 1]"] ;
361 -> 362 ;
363 [label="complimentcount <= 2.5\ngini = 0.219\nsamples = 8\nvalue = [7, 1]"] ;
362 -> 363 ;
364 [label="gini = 0.444\nsamples = 3\nvalue = [2, 1]"] ;
363 -> 364 ;
365 [label="gini = 0.0\nsamples = 5\nvalue = [5, 0]"] ;
363 -> 365 ;
366 [label="gini = 0.0\nsamples = 44\nvalue = [44, 0]"] ;
362 -> 366 ;
367 [label="avgpostedrating <= 3.5\ngini = 0.236\nsamples = 73\nvalue = [63, 10]"] ;
361 -> 367 ;
368 [label="reviewcount <= 35.5\ngini = 0.103\nsamples = 55\nvalue = [52, 3]"] ;
367 -> 368 ;
369 [label="gini = 0.444\nsamples = 3\nvalue = [1, 2]"] ;
368 -> 369 ;
370 [label="gini = 0.038\nsamples = 52\nvalue = [51, 1]"] ;
368 -> 370 ;
371 [label="fancount <= 2.5\ngini = 0.475\nsamples = 18\nvalue = [11, 7]"] ;
367 -> 371 ;
372 [label="gini = 0.463\nsamples = 11\nvalue = [4, 7]"] ;
371 -> 372 ;
373 [label="gini = 0.0\nsamples = 7\nvalue = [7, 0]"] ;
371 -> 373 ;
374 [label="fancount <= 0.5\ngini = 0.465\nsamples = 19\nvalue = [12, 7]"] ;
360 -> 374 ;
375 [label="complimentcount <= 5.5\ngini = 0.444\nsamples = 9\nvalue = [3, 6]"] ;
374 -> 375 ;
376 [label="gini = 0.0\nsamples = 6\nvalue = [0, 6]"] ;
375 -> 376 ;
377 [label="gini = 0.0\nsamples = 3\nvalue = [3, 0]"] ;
375 -> 377 ;
378 [label="polarity <= 0.503\ngini = 0.18\nsamples = 10\nvalue = [9, 1]"] ;
374 -> 378 ;
379 [label="gini = 0.0\nsamples = 5\nvalue = [5, 0]"] ;
378 -> 379 ;
380 [label="funnycount <= 18.5\ngini = 0.32\nsamples = 5\nvalue = [4, 1]"] ;
378 -> 380 ;
381 [label="gini = 0.0\nsamples = 3\nvalue = [3, 0]"] ;
380 -> 381 ;
382 [label="gini = 0.5\nsamples = 2\nvalue = [1, 1]"] ;
380 -> 382 ;
383 [label="coolcount <= 1.5\ngini = 0.073\nsamples = 1080\nvalue = [1039, 41]"] ;
333 -> 383 ;
384 [label="maxReviewDay <= 33.5\ngini = 0.498\nsamples = 36\nvalue = [19, 17]"] ;
383 -> 384 ;
385 [label="subjective <= 0.653\ngini = 0.464\nsamples = 30\nvalue = [19, 11]"] ;
384 -> 385 ;
386 [label="tipcount <= 1.0\ngini = 0.18\nsamples = 20\nvalue = [18, 2]"] ;
385 -> 386 ;
387 [label="coolcount <= 0.5\ngini = 0.298\nsamples = 11\nvalue = [9, 2]"] ;
386 -> 387 ;
388 [label="gini = 0.0\nsamples = 6\nvalue = [6, 0]"] ;
387 -> 388 ;
389 [label="buscateg <= 0.5\ngini = 0.48\nsamples = 5\nvalue = [3, 2]"] ;
387 -> 389 ;
390 [label="gini = 0.0\nsamples = 2\nvalue = [2, 0]"] ;
389 -> 390 ;
391 [label="gini = 0.444\nsamples = 3\nvalue = [1, 2]"] ;
389 -> 391 ;
392 [label="gini = 0.0\nsamples = 9\nvalue = [9, 0]"] ;
386 -> 392 ;
393 [label="polarity <= 0.376\ngini = 0.18\nsamples = 10\nvalue = [1, 9]"] ;
385 -> 393 ;
394 [label="gini = 0.5\nsamples = 2\nvalue = [1, 1]"] ;
393 -> 394 ;
395 [label="gini = 0.0\nsamples = 8\nvalue = [0, 8]"] ;
393 -> 395 ;
396 [label="gini = 0.0\nsamples = 6\nvalue = [0, 6]"] ;
384 -> 396 ;
397 [label="polarity <= 0.669\ngini = 0.045\nsamples = 1044\nvalue = [1020, 24]"] ;
383 -> 397 ;
398 [label="cluster <= 3.5\ngini = 0.035\nsamples = 1014\nvalue = [996, 18]"] ;
397 -> 398 ;
399 [label="avgreviewlen <= 104.5\ngini = 0.08\nsamples = 310\nvalue = [297, 13]"] ;
398 -> 399 ;
400 [label="firstcount <= 10.0\ngini = 0.375\nsamples = 4\nvalue = [1, 3]"] ;
399 -> 400 ;
401 [label="gini = 0.5\nsamples = 2\nvalue = [1, 1]"] ;
400 -> 401 ;
402 [label="gini = 0.0\nsamples = 2\nvalue = [0, 2]"] ;
400 -> 402 ;
403 [label="avgReviewDay <= 2.5\ngini = 0.063\nsamples = 306\nvalue = [296, 10]"] ;
399 -> 403 ;
404 [label="monmembership <= 8.5\ngini = 0.04\nsamples = 248\nvalue = [243, 5]"] ;
403 -> 404 ;
405 [label="gini = 0.236\nsamples = 22\nvalue = [19, 3]"] ;
404 -> 405 ;
406 [label="gini = 0.018\nsamples = 226\nvalue = [224, 2]"] ;
404 -> 406 ;
407 [label="friendcount <= 203.0\ngini = 0.158\nsamples = 58\nvalue = [53, 5]"] ;
403 -> 407 ;
408 [label="gini = 0.107\nsamples = 53\nvalue = [50, 3]"] ;
407 -> 408 ;
409 [label="gini = 0.48\nsamples = 5\nvalue = [3, 2]"] ;
407 -> 409 ;
410 [label="polarity <= -0.148\ngini = 0.014\nsamples = 704\nvalue = [699, 5]"] ;
398 -> 410 ;
411 [label="subjective <= 0.561\ngini = 0.32\nsamples = 5\nvalue = [4, 1]"] ;
410 -> 411 ;
412 [label="gini = 0.5\nsamples = 2\nvalue = [1, 1]"] ;
411 -> 412 ;
413 [label="gini = 0.0\nsamples = 3\nvalue = [3, 0]"] ;
411 -> 413 ;
414 [label="avgpostedrating <= 2.5\ngini = 0.011\nsamples = 699\nvalue = [695, 4]"] ;
410 -> 414 ;
415 [label="usefulcount <= 58.5\ngini = 0.133\nsamples = 14\nvalue = [13, 1]"] ;
414 -> 415 ;
416 [label="gini = 0.278\nsamples = 6\nvalue = [5, 1]"] ;
415 -> 416 ;
417 [label="gini = 0.0\nsamples = 8\nvalue = [8, 0]"] ;
415 -> 417 ;
418 [label="reviewrating <= 2.5\ngini = 0.009\nsamples = 685\nvalue = [682, 3]"] ;
414 -> 418 ;
419 [label="gini = 0.091\nsamples = 42\nvalue = [40, 2]"] ;
418 -> 419 ;
420 [label="gini = 0.003\nsamples = 643\nvalue = [642, 1]"] ;
418 -> 420 ;
421 [label="funnycount <= 0.5\ngini = 0.32\nsamples = 30\nvalue = [24, 6]"] ;
397 -> 421 ;
422 [label="gini = 0.0\nsamples = 4\nvalue = [0, 4]"] ;
421 -> 422 ;
423 [label="tipcount <= 164.0\ngini = 0.142\nsamples = 26\nvalue = [24, 2]"] ;
421 -> 423 ;
424 [label="gini = 0.0\nsamples = 24\nvalue = [24, 0]"] ;
423 -> 424 ;
425 [label="gini = 0.0\nsamples = 2\nvalue = [0, 2]"] ;
423 -> 425 ;
426 [label="gini = 0.0\nsamples = 1251\nvalue = [1251, 0]"] ;
190 -> 426 ;
}